Language model created by QuickLM on Thu Oct 16 03:40:27 EDT 2014
Copyright (c) 1996-2010 Carnegie Mellon University and Alexander I. Rudnicky

The model is in standard ARPA format, designed by Doug Paul while he was at MITRE.

The code that was used to produce this language model is available in Open Source.
Please visit http://www.speech.cs.cmu.edu/tools/ for more information

The (fixed) discount mass is 0.5. The backoffs are computed using the ratio method.
This model based on a corpus of 15 sentences and 17 words

\data\
ngram 1=17
ngram 2=30
ngram 3=15

\1-grams:
-0.7782 </s> -0.3010
-0.7782 <s> -0.2218
-1.9542 CANCEL -0.2218
-1.9542 CONFIRM -0.2218
-1.9542 EIGHT -0.2218
-1.9542 FIVE -0.2218
-1.9542 FOUR -0.2218
-1.9542 NEXT -0.2218
-1.9542 NINE -0.2218
-1.9542 OKAY -0.2218
-1.9542 ONE -0.2218
-1.9542 PREVIOUS -0.2218
-1.9542 SEVEN -0.2218
-1.9542 SIX -0.2218
-1.9542 TEN -0.2218
-1.9542 THREE -0.2218
-1.9542 TWO -0.2218

\2-grams:
-1.4771 <s> CANCEL 0.0000
-1.4771 <s> CONFIRM 0.0000
-1.4771 <s> EIGHT 0.0000
-1.4771 <s> FIVE 0.0000
-1.4771 <s> FOUR 0.0000
-1.4771 <s> NEXT 0.0000
-1.4771 <s> NINE 0.0000
-1.4771 <s> OKAY 0.0000
-1.4771 <s> ONE 0.0000
-1.4771 <s> PREVIOUS 0.0000
-1.4771 <s> SEVEN 0.0000
-1.4771 <s> SIX 0.0000
-1.4771 <s> TEN 0.0000
-1.4771 <s> THREE 0.0000
-1.4771 <s> TWO 0.0000
-0.3010 CANCEL </s> -0.3010
-0.3010 CONFIRM </s> -0.3010
-0.3010 EIGHT </s> -0.3010
-0.3010 FIVE </s> -0.3010
-0.3010 FOUR </s> -0.3010
-0.3010 NEXT </s> -0.3010
-0.3010 NINE </s> -0.3010
-0.3010 OKAY </s> -0.3010
-0.3010 ONE </s> -0.3010
-0.3010 PREVIOUS </s> -0.3010
-0.3010 SEVEN </s> -0.3010
-0.3010 SIX </s> -0.3010
-0.3010 TEN </s> -0.3010
-0.3010 THREE </s> -0.3010
-0.3010 TWO </s> -0.3010

\3-grams:
-0.3010 <s> CANCEL </s>
-0.3010 <s> CONFIRM </s>
-0.3010 <s> EIGHT </s>
-0.3010 <s> FIVE </s>
-0.3010 <s> FOUR </s>
-0.3010 <s> NEXT </s>
-0.3010 <s> NINE </s>
-0.3010 <s> OKAY </s>
-0.3010 <s> ONE </s>
-0.3010 <s> PREVIOUS </s>
-0.3010 <s> SEVEN </s>
-0.3010 <s> SIX </s>
-0.3010 <s> TEN </s>
-0.3010 <s> THREE </s>
-0.3010 <s> TWO </s>

\end\
